// weights from Python baseline
// W1 [64, 8]
static const float W1[512] = {
  0.02818249f,  0.1242396f,  0.05933046f,  0.02591332f,  -0.04407792f,  0.084232f,  -0.03603404f,  0.2261903f,
  0.1248696f,  0.1300056f,  0.07733961f,  -0.003768905f,  -0.1032968f,  0.2185512f,  -0.006323036f,  -0.2844492f,
  -0.2977037f,  0.5114497f,  0.05969838f,  0.1822893f,  0.04278646f,  0.1735643f,  0.2648683f,  0.1191427f,
  0.03446995f,  0.118013f,  -0.2024186f,  0.02983589f,  0.03603148f,  0.01414139f,  0.05566825f,  0.3947963f,
  -0.06723041f,  0.2330882f,  -0.1590236f,  -0.05873576f,  -0.0221336f,  0.1866669f,  0.3075963f,  0.1699008f,
  -0.2508438f,  0.3309647f,  -0.0007777005f,  -0.415972f,  0.008921408f,  0.2702571f,  0.03047958f,  -0.3584432f,
  -0.1658237f,  0.2565293f,  0.06200458f,  -0.09447067f,  0.1652317f,  -0.304958f,  0.08246595f,  -0.4428955f,
  0.1537737f,  -0.1695656f,  0.02974937f,  -0.1675688f,  -0.2300938f,  -0.264283f,  0.1586765f,  -0.2845076f,
  -0.1892714f,  -0.06260671f,  0.004094882f,  -0.2524087f,  0.1625724f,  -0.2145247f,  -0.003751649f,  -0.03146381f,
  0.1306801f,  0.1465843f,  -0.01318115f,  -0.1778734f,  -0.3126322f,  -0.1925736f,  0.1242954f,  -0.07905535f,
  0.005788104f,  0.09933001f,  -0.3121473f,  0.0357045f,  -0.03058731f,  -0.2746553f,  0.2205073f,  0.2340394f,
  0.2222859f,  0.1805368f,  0.159411f,  0.2259776f,  -0.03479327f,  -0.1587794f,  -0.02447637f,  -0.07400574f,
  0.05344146f,  -0.1454906f,  0.1752065f,  -0.3322069f,  -0.1889349f,  0.06378765f,  0.4584844f,  0.2252339f,
  -0.1021646f,  -0.04897393f,  -0.178435f,  -0.2142783f,  -0.2304357f,  0.5853578f,  -0.03281714f,  0.5686235f,
  0.07341409f,  -0.1249823f,  -0.02613107f,  -0.1435736f,  0.1454189f,  0.06565939f,  0.2352575f,  0.193769f,
  0.1443825f,  -0.01156158f,  0.2709024f,  0.06555396f,  -0.1165666f,  0.003356954f,  -0.2003425f,  -0.194415f,
  0.08171295f,  -0.08553682f,  0.02229431f,  -0.03675574f,  -0.2225713f,  -0.1295807f,  0.0006709501f,  -0.06613446f,
  -0.04104825f,  0.1437791f,  -0.0403776f,  0.06826793f,  0.1859722f,  -0.1407992f,  0.02530818f,  0.2534907f,
  0.249952f,  0.158232f,  -0.1661411f,  0.4071683f,  0.2611374f,  -0.1936325f,  -0.4368664f,  0.4472073f,
  -0.2523004f,  -0.03621486f,  -0.1619841f,  0.2384411f,  0.1935543f,  -0.06074869f,  -0.3244785f,  -0.3580541f,
  -0.182085f,  -0.1686054f,  -0.07847928f,  0.1278307f,  -0.00507078f,  0.5013836f,  -0.09029599f,  0.06208982f,
  -0.005209693f,  -0.5744649f,  -0.09632156f,  -0.4030703f,  -0.2656036f,  -0.2907099f,  0.08362032f,  0.5362667f,
  -0.06419428f,  -0.1052878f,  0.0313157f,  -0.2587654f,  -0.2550744f,  -0.0420989f,  -0.05278916f,  0.1091267f,
  0.1173484f,  0.05459258f,  0.02393112f,  0.1039428f,  0.0355693f,  -0.1793893f,  -0.1200934f,  -0.2349332f,
  -0.1890023f,  0.08671676f,  0.1951392f,  -0.000881565f,  -0.1631144f,  -0.1516355f,  -0.2580258f,  -0.057888f,
  -0.0270504f,  0.2124746f,  0.005765544f,  -0.04601226f,  -0.2799312f,  -0.3098595f,  -0.1745671f,  -0.3151598f,
  0.0130425f,  0.3187908f,  0.4425514f,  -0.1217576f,  0.164001f,  -0.333442f,  -0.7622344f,  0.008284384f,
  -0.4888872f,  0.07934044f,  -0.144231f,  -0.0002321515f,  0.07553858f,  0.4553432f,  -0.5054051f,  0.4432791f,
  -0.7052267f,  0.3695966f,  -0.04065283f,  -0.1425412f,  0.1858406f,  0.3950709f,  -0.01376875f,  0.03964859f,
  -0.2641809f,  -0.2825414f,  0.02313299f,  -0.07660042f,  -0.2427507f,  -0.2560468f,  -0.03373232f,  0.3295012f,
  0.176408f,  -0.3720886f,  0.3859544f,  -0.1997883f,  -0.06537524f,  -0.3779899f,  0.01322868f,  -0.08364835f,
  -0.230522f,  -0.04592138f,  -0.05981908f,  0.2901188f,  0.05437101f,  0.08547278f,  0.08393878f,  -0.2681028f,
  0.03013334f,  0.04877228f,  0.2666991f,  -0.1200037f,  -0.1496326f,  -0.2307704f,  -0.2791895f,  0.2479889f,
  0.2717112f,  0.08057953f,  0.2083143f,  0.1823268f,  -0.2425525f,  -0.1841735f,  -0.04247561f,  -0.195229f,
  0.1618116f,  0.1239407f,  0.1738122f,  0.3077922f,  0.4951599f,  0.1254279f,  -0.2362245f,  -0.09775314f,
  -0.2979846f,  -0.02995172f,  0.1534405f,  -0.1463431f,  0.3459955f,  0.07138997f,  0.2119164f,  0.078219f,
  -0.2473109f,  -0.08757386f,  0.01067036f,  -0.1293979f,  0.3824798f,  0.3238254f,  0.08370864f,  -0.3891039f,
  -0.2389017f,  0.3037378f,  0.5053676f,  -0.003512401f,  -0.08379747f,  0.04812245f,  -0.1899161f,  -0.3990397f,
  -0.04300484f,  -0.04354338f,  0.206031f,  -0.364443f,  -0.1518855f,  -0.5434533f,  0.054251f,  -0.2577599f,
  -0.242763f,  -0.2369428f,  0.09933185f,  -0.1470123f,  -0.04587656f,  0.03312189f,  0.2081643f,  0.1310841f,
  -0.1577435f,  -0.2207889f,  -0.1795403f,  -0.08561273f,  -0.1594355f,  -0.05552395f,  0.0588989f,  0.0541739f,
  -0.1091388f,  -0.3302362f,  0.2081732f,  0.2804875f,  -0.2773236f,  -0.1311436f,  0.02755042f,  0.01220194f,
  0.3262973f,  -0.6994094f,  0.22607f,  0.0001567909f,  0.4449242f,  -0.2531706f,  -0.2548468f,  -0.1848988f,
  0.03296946f,  -0.5775671f,  0.3472321f,  0.2881964f,  0.4691313f,  0.1951384f,  0.3578003f,  -0.471586f,
  -0.3341977f,  -0.08182958f,  0.2707093f,  0.356106f,  -0.06885665f,  0.08029493f,  -0.1357547f,  -0.08327425f,
  0.007895299f,  0.2004672f,  -0.1510111f,  -0.3530573f,  0.04684722f,  0.06330324f,  -0.2923395f,  -0.05307608f,
  0.3742769f,  0.1896477f,  0.04262504f,  -0.4142988f,  0.02611031f,  -0.0136713f,  -0.302319f,  -0.1031379f,
  0.2059931f,  0.1756547f,  -0.0498088f,  0.04603733f,  0.2189684f,  -0.07837403f,  0.153181f,  -0.04858413f,
  0.1552874f,  0.2136799f,  0.2134558f,  -0.1785111f,  0.03548227f,  -0.07552236f,  -0.247579f,  -0.0645591f,
  -0.2083409f,  0.08450759f,  -0.1882118f,  0.2252303f,  -0.1482513f,  -0.2034097f,  -0.1339314f,  -0.01110199f,
  0.3555386f,  -0.0546332f,  -0.3745732f,  0.230396f,  0.4798082f,  0.02597511f,  -0.1152251f,  0.1262575f,
  0.2845023f,  -0.398454f,  -0.06327641f,  0.09865615f,  0.06149074f,  -0.2219346f,  0.3494631f,  -0.234888f,
  -0.1561727f,  -0.1919967f,  -0.2666942f,  0.4453859f,  -0.003912147f,  0.1813783f,  0.01985125f,  -0.3862323f,
  0.3572303f,  -0.04008042f,  -0.3391274f,  -0.380553f,  0.1731061f,  -0.003614298f,  -0.1998563f,  0.1881917f,
  -0.06934083f,  -0.0596967f,  -0.316795f,  -0.1555025f,  0.1776063f,  -0.1266869f,  0.2367999f,  0.07416508f,
  -0.07582588f,  0.05794249f,  0.0778752f,  -0.1896638f,  -0.07865786f,  0.02247567f,  0.1437806f,  0.07507254f,
  0.2835336f,  0.1544385f,  -0.1223944f,  0.294681f,  -0.148728f,  -0.234467f,  0.2811901f,  -0.1676943f,
  -0.01689107f,  -0.01732446f,  0.0403445f,  0.1924434f,  -0.2230083f,  -0.08548758f,  0.1162611f,  0.01896855f,
  -0.1725345f,  0.1890829f,  -0.0804926f,  -0.1686475f,  -0.04215853f,  -0.1262382f,  0.3067569f,  0.1811782f,
  0.2958446f,  0.3664655f,  0.06985665f,  0.09070539f,  0.08561387f,  0.3339917f,  0.291236f,  0.2080877f,
  -0.1924292f,  -0.1687406f,  -0.6425624f,  0.0363331f,  -0.1876744f,  0.1638138f,  -0.374321f,  0.3220141f,
  0.3108971f,  -0.1117437f,  -0.618467f,  -0.00199412f,  0.4395027f,  0.09542303f,  0.1259442f,  -0.112292f,
  -0.02490601f,  -0.2322552f,  -0.3640203f,  0.1955472f,  0.07300553f,  -0.106151f,  0.3106492f,  0.1507066f,
  -0.09575871f,  0.08907569f,  0.07617785f,  -0.09852415f,  -0.04936571f,  0.1273055f,  -0.01136123f,  -0.2236758f,
};

// b1 [8]
static const float b1[8] = {
  0.2344436f,  0.1663907f,  0.2091877f,  0.3350695f,  0.171877f,  0.2939823f,  0.08549459f,  0.584171f,
};

// W2 [8, 10]
static const float W2[80] = {
  1.06814f,  -0.1461335f,  0.1669587f,  0.1509199f,  -0.3652049f,  -0.2971873f,  0.7888893f,  0.01962717f,
  -0.1976519f,  -0.4008496f,  -0.6136419f,  -0.1659046f,  -0.8261244f,  0.3301239f,  -0.1536144f,  1.071201f,
  -0.317689f,  -0.5176974f,  -0.5907592f,  -0.02167783f,  0.004724067f,  -0.2688265f,  -0.6786737f,  -0.483111f,
  0.758657f,  0.02992799f,  -0.1792096f,  0.7946221f,  -0.6063233f,  0.3624934f,  -0.02735349f,  0.4222514f,
  0.5518426f,  -0.7111742f,  0.5937801f,  0.3659225f,  0.09646448f,  -0.5677215f,  0.3059604f,  -0.5556329f,
  -0.4596486f,  0.2468778f,  0.1034904f,  -0.508892f,  -0.3818857f,  -0.1496002f,  0.7586284f,  0.09126551f,
  0.3915562f,  -0.4989002f,  0.1547322f,  1.287991f,  -0.08580528f,  0.9723189f,  -0.02361088f,  0.1803378f,
  0.05454317f,  0.1769759f,  0.7392607f,  -0.5744703f,  -0.5086744f,  -0.2576694f,  1.107825f,  0.2420811f,
  -0.5035037f,  0.1314335f,  -0.2530661f,  0.7575712f,  -0.5104505f,  -0.1611265f,  0.2108772f,  -0.8893273f,
  0.09917587f,  0.1385006f,  -0.6863263f,  -0.5357633f,  -0.8465577f,  -0.133802f,  0.6230506f,  1.058226f,
};

// b2 [10]
static const float b2[10] = {
  0.1036202f,  0.2265053f,  -0.1982182f,  0.228953f,  0.3123041f,  -0.3895599f,  -0.005213022f,  -0.5555107f,
  0.1476372f,  0.1294819f,};

